#pragma once
#include <cstdarg>
namespace Eloquent {
    namespace ML {
        namespace Port {
            class SVM {
                public:
                    /**
                    * Predict class for features vector
                    */
                    int predict(float *x) {
                        float kernels[36] = { 0 };
                        float decisions[1] = { 0 };
                        int votes[2] = { 0 };
                        kernels[0] = compute_kernel(x,   -0.058396911176  , -0.376647667949  , 0.708763242855  , -0.508331736761 );
                        kernels[1] = compute_kernel(x,   0.628854612221  , 0.653991548535  , 0.763668352885  , -0.239701144164 );
                        kernels[2] = compute_kernel(x,   -0.919418181945  , -0.932603908156  , 0.506036682742  , -1.851484699747 );
                        kernels[3] = compute_kernel(x,   -0.823401264478  , -0.807749328787  , 0.011890692468  , -2.120115292344 );
                        kernels[4] = compute_kernel(x,   -0.934551283068  , -1.092794689232  , 0.392002992679  , -2.791691773837 );
                        kernels[5] = compute_kernel(x,   -0.901675925457  , -0.933781781546  , -1.077764568136  , -0.508331736761 );
                        kernels[6] = compute_kernel(x,   -0.750344914231  , -0.792436974714  , -0.089472587588  , 0.566190633628 );
                        kernels[7] = compute_kernel(x,   -0.250952577184  , -0.373114047779  , -0.807462487986  , 0.163244744732 );
                        kernels[8] = compute_kernel(x,   0.102848890441  , 0.095679561548  , -1.098881918148  , 0.297560041031 );
                        kernels[9] = compute_kernel(x,   -0.540046991734  , -0.612222346003  , -0.744110437951  , 0.163244744732 );
                        kernels[10] = compute_kernel(x,   -0.927767479117  , -0.747677785884  , -1.386077878307  , 0.834821226225 );
                        kernels[11] = compute_kernel(x,   -1.180855549616  , -1.011521425304  , -1.419865638326  , 0.700505929927 );
                        kernels[12] = compute_kernel(x,   1.359939945765  , 1.139275385325  , 0.290639712623  , 0.297560041031 );
                        kernels[13] = compute_kernel(x,   1.390727979084  , 1.253529104181  , -0.085249117586  , 0.028929448434 );
                        kernels[14] = compute_kernel(x,   1.304104020934  , 1.120429411081  , -0.186612397642  , 0.566190633628 );
                        kernels[15] = compute_kernel(x,   1.369332905083  , 1.187568194326  , 0.353991762658  , 0.431875337329 );
                        kernels[16] = compute_kernel(x,   0.024574229462  , -0.079823573602  , 0.290639712623  , 0.700505929927 );
                        kernels[17] = compute_kernel(x,   0.286533428206  , 0.158106851232  , -0.114813407602  , 0.431875337329 );
                        kernels[18] = compute_kernel(x,   0.642422220124  , 0.769423140781  , 0.041454982485  , 0.834821226225 );
                        kernels[19] = compute_kernel(x,   0.756703225153  , 1.013242932566  , 0.653858132824  , 0.969136522524 );
                        kernels[20] = compute_kernel(x,   0.200953132202  , 0.224067761087  , -1.977363678635  , -0.776962329358 );
                        kernels[21] = compute_kernel(x,   0.561016572706  , 0.603342992753  , -2.479956608914  , -1.717169403448 );
                        kernels[22] = compute_kernel(x,   -0.792091400086  , -0.761812266567  , -0.482255297806  , 0.297560041031 );
                        kernels[23] = compute_kernel(x,   0.011006621559  , -0.268283316045  , 0.079466212506  , -1.448538810851 );
                        kernels[24] = compute_kernel(x,   -0.203465949523  , -0.24825946841  , 0.218840722583  , -1.179908218254 );
                        kernels[25] = compute_kernel(x,   -0.793135062233  , -0.766523760128  , -0.085249117586  , -1.045592921955 );
                        kernels[26] = compute_kernel(x,   -0.859929439601  , -0.77476887386  , 0.189276432567  , -1.314223514552 );
                        kernels[27] = compute_kernel(x,   -1.216340062593  , -1.202336914527  , 0.89881939296  , -1.179908218254 );
                        kernels[28] = compute_kernel(x,   -1.1130175101  , -0.980896717157  , 0.708763242855  , -1.179908218254 );
                        kernels[29] = compute_kernel(x,   0.954477201894  , 0.936681162199  , 0.113253972524  , 0.700505929927 );
                        kernels[30] = compute_kernel(x,   -0.310441319528  , -0.395493642194  , -0.228847097665  , 0.431875337329 );
                        kernels[31] = compute_kernel(x,   1.303060358787  , 1.580977906675  , 0.518707092749  , 0.566190633628 );
                        kernels[32] = compute_kernel(x,   1.033795525019  , 1.319490014036  , 0.729880592866  , 0.969136522524 );
                        kernels[33] = compute_kernel(x,   -1.498128842117  , -1.561588298559  , -0.359774667738  , -0.642647033059 );
                        kernels[34] = compute_kernel(x,   -1.468384470945  , -1.56512191873  , -0.059908297572  , -0.374016440462 );
                        kernels[35] = compute_kernel(x,   -1.130237935516  , -1.025655905987  , 0.142818262541  , -0.239701144164 );
                        float decision = 0.034696192758;
                        decision = decision - ( + kernels[0] * -1.120689655172  + kernels[1] * -1.120689655172  + kernels[2] * -1.120689655172  + kernels[3] * -1.120689655172  + kernels[4] * -1.120689655172  + kernels[5] * -1.120689655172  + kernels[6] * -1.120689655172  + kernels[7] * -1.120689655172  + kernels[8] * -0.045366989588  + kernels[9] * -1.120689655172  + kernels[10] * -1.120689655172  + kernels[11] * -1.120689655172  + kernels[12] * -1.120689655172  + kernels[13] * -1.086070874413  + kernels[14] * -1.120689655172  + kernels[15] * -1.120689655172 );
                        decision = decision - ( + kernels[16] * 0.902777777778  + kernels[17] * 0.902777777778  + kernels[18] * 0.902777777778  + kernels[19] * 0.494124121613  + kernels[20] * 0.902777777778  + kernels[21] * 0.902777777778  + kernels[22] * 0.902777777778  + kernels[23] * 0.902777777778  + kernels[24] * 0.902777777778  + kernels[25] * 0.902777777778  + kernels[26] * 0.902777777778  + kernels[27] * 0.076968914803  + kernels[28] * 0.902777777778  + kernels[29] * 0.902777777778  + kernels[30] * 0.902777777778  + kernels[31] * 0.902777777778  + kernels[32] * 0.902777777778  + kernels[33] * 0.902777777778  + kernels[34] * 0.902777777778  + kernels[35] * 0.902777777778 );

                        return decision > 0 ? 0 : 1;
                    }

                protected:
                    /**
                    * Compute kernel between feature vector and support vector.
                    * Kernel type: linear
                    */
                    float compute_kernel(float *x, ...) {
                        va_list w;
                        va_start(w, 4);
                        float kernel = 0.0;

                        for (uint16_t i = 0; i < 4; i++) {
                            kernel += x[i] * va_arg(w, double);
                        }

                        return kernel;
                    }
                };
            }
        }
    }