#pragma once
#include <cstdarg>
namespace Eloquent {
    namespace ML {
        namespace Port {
            class RandomForest {
                public:
                    /**
                    * Predict class for features vector
                    */
                    int predict(float *x) {
                        uint8_t votes[2] = { 0 };
                        // tree #1
                        if (x[3] <= 84.1400032043457) {
                            if (x[3] <= 66.70499801635742) {
                                votes[0] += 1;
                            }

                            else {
                                if (x[2] <= 0.2598000019788742) {
                                    if (x[3] <= 75.55500030517578) {
                                        votes[0] += 1;
                                    }

                                    else {
                                        votes[0] += 1;
                                    }
                                }

                                else {
                                    if (x[1] <= 0.1928500011563301) {
                                        if (x[3] <= 78.40499877929688) {
                                            votes[1] += 1;
                                        }

                                        else {
                                            votes[1] += 1;
                                        }
                                    }

                                    else {
                                        if (x[3] <= 81.17499923706055) {
                                            votes[0] += 1;
                                        }

                                        else {
                                            votes[1] += 1;
                                        }
                                    }
                                }
                            }
                        }

                        else {
                            if (x[0] <= 0.29294998943805695) {
                                votes[1] += 1;
                            }

                            else {
                                votes[1] += 1;
                            }
                        }

                        // tree #2
                        if (x[3] <= 84.32500076293945) {
                            if (x[2] <= 0.26270000636577606) {
                                if (x[2] <= 0.2089499980211258) {
                                    votes[0] += 1;
                                }

                                else {
                                    if (x[2] <= 0.2551500052213669) {
                                        votes[0] += 1;
                                    }

                                    else {
                                        votes[0] += 1;
                                    }
                                }
                            }

                            else {
                                if (x[0] <= 0.20429999381303787) {
                                    votes[1] += 1;
                                }

                                else {
                                    if (x[2] <= 0.27175000309944153) {
                                        if (x[2] <= 0.26635000109672546) {
                                            votes[0] += 1;
                                        }

                                        else {
                                            votes[1] += 1;
                                        }
                                    }

                                    else {
                                        if (x[3] <= 77.85499954223633) {
                                            if (x[2] <= 0.28315000236034393) {
                                                votes[0] += 1;
                                            }

                                            else {
                                                votes[0] += 1;
                                            }
                                        }

                                        else {
                                            votes[1] += 1;
                                        }
                                    }
                                }
                            }
                        }

                        else {
                            if (x[1] <= 0.12344999983906746) {
                                votes[0] += 1;
                            }

                            else {
                                if (x[0] <= 0.3279000073671341) {
                                    votes[1] += 1;
                                }

                                else {
                                    votes[1] += 1;
                                }
                            }
                        }

                        // tree #3
                        if (x[2] <= 0.26680000126361847) {
                            if (x[3] <= 84.14500045776367) {
                                if (x[1] <= 0.1928500011563301) {
                                    if (x[2] <= 0.25370000302791595) {
                                        if (x[0] <= 0.17364999651908875) {
                                            votes[0] += 1;
                                        }

                                        else {
                                            votes[0] += 1;
                                        }
                                    }

                                    else {
                                        if (x[1] <= 0.10690000280737877) {
                                            votes[1] += 1;
                                        }

                                        else {
                                            votes[1] += 1;
                                        }
                                    }
                                }

                                else {
                                    if (x[2] <= 0.2025500014424324) {
                                        votes[0] += 1;
                                    }

                                    else {
                                        votes[0] += 1;
                                    }
                                }
                            }

                            else {
                                votes[1] += 1;
                            }
                        }

                        else {
                            if (x[1] <= 0.1467999964952469) {
                                if (x[1] <= 0.11684999987483025) {
                                    if (x[2] <= 0.27809999883174896) {
                                        votes[0] += 1;
                                    }

                                    else {
                                        votes[1] += 1;
                                    }
                                }

                                else {
                                    votes[0] += 1;
                                }
                            }

                            else {
                                if (x[1] <= 0.26144999265670776) {
                                    votes[1] += 1;
                                }

                                else {
                                    votes[1] += 1;
                                }
                            }
                        }

                        // tree #4
                        if (x[2] <= 0.2778500020503998) {
                            if (x[0] <= 0.13724999502301216) {
                                votes[1] += 1;
                            }

                            else {
                                if (x[2] <= 0.26270000636577606) {
                                    if (x[2] <= 0.2089499980211258) {
                                        votes[0] += 1;
                                    }

                                    else {
                                        if (x[0] <= 0.22129999846220016) {
                                            votes[0] += 1;
                                        }

                                        else {
                                            if (x[0] <= 0.33354999125003815) {
                                                votes[0] += 1;
                                            }

                                            else {
                                                votes[0] += 1;
                                            }
                                        }
                                    }
                                }

                                else {
                                    if (x[2] <= 0.2738500088453293) {
                                        if (x[0] <= 0.6222499907016754) {
                                            if (x[3] <= 80.90499877929688) {
                                                votes[1] += 1;
                                            }

                                            else {
                                                votes[1] += 1;
                                            }
                                        }

                                        else {
                                            votes[0] += 1;
                                        }
                                    }

                                    else {
                                        votes[0] += 1;
                                    }
                                }
                            }
                        }

                        else {
                            if (x[0] <= 0.28939999639987946) {
                                votes[1] += 1;
                            }

                            else {
                                if (x[3] <= 79.6349983215332) {
                                    votes[1] += 1;
                                }

                                else {
                                    votes[1] += 1;
                                }
                            }
                        }

                        // tree #5
                        if (x[3] <= 84.1400032043457) {
                            if (x[2] <= 0.26680000126361847) {
                                if (x[2] <= 0.25370000302791595) {
                                    if (x[1] <= 0.08865000307559967) {
                                        votes[0] += 1;
                                    }

                                    else {
                                        votes[0] += 1;
                                    }
                                }

                                else {
                                    if (x[0] <= 0.46024999022483826) {
                                        votes[0] += 1;
                                    }

                                    else {
                                        votes[0] += 1;
                                    }
                                }
                            }

                            else {
                                if (x[0] <= 0.19439999759197235) {
                                    votes[1] += 1;
                                }

                                else {
                                    if (x[1] <= 0.12754999846220016) {
                                        votes[0] += 1;
                                    }

                                    else {
                                        if (x[0] <= 0.4446000009775162) {
                                            votes[1] += 1;
                                        }

                                        else {
                                            votes[1] += 1;
                                        }
                                    }
                                }
                            }
                        }

                        else {
                            if (x[1] <= 0.12249999865889549) {
                                votes[1] += 1;
                            }

                            else {
                                votes[1] += 1;
                            }
                        }

                        // tree #6
                        if (x[3] <= 84.09500122070312) {
                            if (x[2] <= 0.2639999985694885) {
                                if (x[1] <= 0.19335000216960907) {
                                    if (x[0] <= 0.24550000578165054) {
                                        if (x[3] <= 58.290000915527344) {
                                            votes[0] += 1;
                                        }

                                        else {
                                            votes[0] += 1;
                                        }
                                    }

                                    else {
                                        if (x[3] <= 80.67499923706055) {
                                            votes[1] += 1;
                                        }

                                        else {
                                            votes[0] += 1;
                                        }
                                    }
                                }

                                else {
                                    votes[0] += 1;
                                }
                            }

                            else {
                                if (x[1] <= 0.13659999519586563) {
                                    if (x[2] <= 0.2782000005245209) {
                                        if (x[3] <= 65.70000076293945) {
                                            votes[0] += 1;
                                        }

                                        else {
                                            votes[1] += 1;
                                        }
                                    }

                                    else {
                                        votes[1] += 1;
                                    }
                                }

                                else {
                                    if (x[1] <= 0.24140000343322754) {
                                        votes[0] += 1;
                                    }

                                    else {
                                        votes[0] += 1;
                                    }
                                }
                            }
                        }

                        else {
                            if (x[3] <= 88.47999954223633) {
                                votes[1] += 1;
                            }

                            else {
                                if (x[2] <= 0.290800005197525) {
                                    votes[1] += 1;
                                }

                                else {
                                    votes[1] += 1;
                                }
                            }
                        }

                        // tree #7
                        if (x[1] <= 0.19335000216960907) {
                            if (x[2] <= 0.24729999899864197) {
                                votes[0] += 1;
                            }

                            else {
                                if (x[3] <= 65.70000076293945) {
                                    votes[0] += 1;
                                }

                                else {
                                    if (x[2] <= 0.2875500023365021) {
                                        if (x[3] <= 77.35499954223633) {
                                            votes[1] += 1;
                                        }

                                        else {
                                            if (x[1] <= 0.12370000034570694) {
                                                votes[1] += 1;
                                            }

                                            else {
                                                votes[1] += 1;
                                            }
                                        }
                                    }

                                    else {
                                        votes[1] += 1;
                                    }
                                }
                            }
                        }

                        else {
                            if (x[3] <= 81.7599983215332) {
                                if (x[3] <= 68.82500076293945) {
                                    votes[0] += 1;
                                }

                                else {
                                    votes[0] += 1;
                                }
                            }

                            else {
                                if (x[0] <= 0.5705499947071075) {
                                    votes[1] += 1;
                                }

                                else {
                                    votes[1] += 1;
                                }
                            }
                        }

                        // tree #8
                        if (x[1] <= 0.2030000016093254) {
                            if (x[3] <= 65.24499893188477) {
                                votes[0] += 1;
                            }

                            else {
                                if (x[1] <= 0.1467999964952469) {
                                    if (x[2] <= 0.24390000104904175) {
                                        votes[0] += 1;
                                    }

                                    else {
                                        if (x[2] <= 0.27060000598430634) {
                                            if (x[2] <= 0.25154999643564224) {
                                                votes[1] += 1;
                                            }

                                            else {
                                                votes[1] += 1;
                                            }
                                        }

                                        else {
                                            if (x[1] <= 0.13454999774694443) {
                                                votes[1] += 1;
                                            }

                                            else {
                                                votes[0] += 1;
                                            }
                                        }
                                    }
                                }

                                else {
                                    if (x[0] <= 0.43299999833106995) {
                                        votes[1] += 1;
                                    }

                                    else {
                                        votes[1] += 1;
                                    }
                                }
                            }
                        }

                        else {
                            if (x[3] <= 81.7599983215332) {
                                if (x[3] <= 64.57500076293945) {
                                    votes[0] += 1;
                                }

                                else {
                                    votes[0] += 1;
                                }
                            }

                            else {
                                if (x[1] <= 0.25519999116659164) {
                                    votes[1] += 1;
                                }

                                else {
                                    votes[1] += 1;
                                }
                            }
                        }

                        // tree #9
                        if (x[1] <= 0.2635499984025955) {
                            if (x[2] <= 0.24729999899864197) {
                                if (x[3] <= 72.94000244140625) {
                                    if (x[1] <= 0.14559999853372574) {
                                        votes[0] += 1;
                                    }

                                    else {
                                        votes[1] += 1;
                                    }
                                }

                                else {
                                    votes[0] += 1;
                                }
                            }

                            else {
                                if (x[3] <= 65.24499893188477) {
                                    votes[0] += 1;
                                }

                                else {
                                    if (x[3] <= 83.96000289916992) {
                                        if (x[0] <= 0.37539999186992645) {
                                            if (x[1] <= 0.06990000233054161) {
                                                votes[1] += 1;
                                            }

                                            else {
                                                votes[1] += 1;
                                            }
                                        }

                                        else {
                                            if (x[3] <= 82.06000137329102) {
                                                votes[0] += 1;
                                            }

                                            else {
                                                votes[1] += 1;
                                            }
                                        }
                                    }

                                    else {
                                        votes[1] += 1;
                                    }
                                }
                            }
                        }

                        else {
                            if (x[3] <= 80.53499984741211) {
                                votes[0] += 1;
                            }

                            else {
                                votes[0] += 1;
                            }
                        }

                        // tree #10
                        if (x[3] <= 84.1400032043457) {
                            if (x[1] <= 0.19564999639987946) {
                                if (x[2] <= 0.2551500052213669) {
                                    if (x[2] <= 0.22379999607801437) {
                                        votes[0] += 1;
                                    }

                                    else {
                                        votes[0] += 1;
                                    }
                                }

                                else {
                                    if (x[1] <= 0.09495000168681145) {
                                        if (x[1] <= 0.062950000166893) {
                                            votes[1] += 1;
                                        }

                                        else {
                                            votes[1] += 1;
                                        }
                                    }

                                    else {
                                        if (x[3] <= 65.24499893188477) {
                                            votes[0] += 1;
                                        }

                                        else {
                                            if (x[1] <= 0.14339999854564667) {
                                                votes[1] += 1;
                                            }

                                            else {
                                                votes[1] += 1;
                                            }
                                        }
                                    }
                                }
                            }

                            else {
                                if (x[3] <= 81.7599983215332) {
                                    if (x[1] <= 0.22955000400543213) {
                                        if (x[1] <= 0.20835000276565552) {
                                            votes[0] += 1;
                                        }

                                        else {
                                            votes[0] += 1;
                                        }
                                    }

                                    else {
                                        if (x[3] <= 71.46500015258789) {
                                            votes[0] += 1;
                                        }

                                        else {
                                            votes[0] += 1;
                                        }
                                    }
                                }

                                else {
                                    votes[1] += 1;
                                }
                            }
                        }

                        else {
                            if (x[0] <= 0.3149999976158142) {
                                votes[1] += 1;
                            }

                            else {
                                if (x[1] <= 0.1780499964952469) {
                                    votes[1] += 1;
                                }

                                else {
                                    votes[1] += 1;
                                }
                            }
                        }

                        // tree #11
                        if (x[2] <= 0.24615000188350677) {
                            if (x[3] <= 65.33000183105469) {
                                votes[0] += 1;
                            }

                            else {
                                votes[0] += 1;
                            }
                        }

                        else {
                            if (x[3] <= 82.8900032043457) {
                                if (x[1] <= 0.17109999805688858) {
                                    if (x[1] <= 0.10935000330209732) {
                                        if (x[0] <= 0.1903499960899353) {
                                            if (x[2] <= 0.27175000309944153) {
                                                votes[1] += 1;
                                            }

                                            else {
                                                votes[1] += 1;
                                            }
                                        }

                                        else {
                                            votes[0] += 1;
                                        }
                                    }

                                    else {
                                        votes[1] += 1;
                                    }
                                }

                                else {
                                    if (x[3] <= 81.7599983215332) {
                                        if (x[0] <= 0.4758500009775162) {
                                            votes[0] += 1;
                                        }

                                        else {
                                            votes[0] += 1;
                                        }
                                    }

                                    else {
                                        votes[1] += 1;
                                    }
                                }
                            }

                            else {
                                if (x[1] <= 0.12249999865889549) {
                                    if (x[0] <= 0.20520000159740448) {
                                        votes[1] += 1;
                                    }

                                    else {
                                        votes[1] += 1;
                                    }
                                }

                                else {
                                    if (x[2] <= 0.2809000015258789) {
                                        votes[1] += 1;
                                    }

                                    else {
                                        votes[1] += 1;
                                    }
                                }
                            }
                        }

                        // tree #12
                        if (x[3] <= 84.1400032043457) {
                            if (x[0] <= 0.5145000219345093) {
                                if (x[3] <= 63.97999954223633) {
                                    votes[0] += 1;
                                }

                                else {
                                    if (x[3] <= 75.7249984741211) {
                                        if (x[0] <= 0.17310000211000443) {
                                            votes[0] += 1;
                                        }

                                        else {
                                            if (x[3] <= 68.14500045776367) {
                                                votes[1] += 1;
                                            }

                                            else {
                                                votes[1] += 1;
                                            }
                                        }
                                    }

                                    else {
                                        if (x[2] <= 0.25440000742673874) {
                                            votes[0] += 1;
                                        }

                                        else {
                                            if (x[2] <= 0.27490000426769257) {
                                                votes[1] += 1;
                                            }

                                            else {
                                                votes[0] += 1;
                                            }
                                        }
                                    }
                                }
                            }

                            else {
                                if (x[2] <= 0.27140000462532043) {
                                    votes[0] += 1;
                                }

                                else {
                                    votes[0] += 1;
                                }
                            }
                        }

                        else {
                            if (x[1] <= 0.12249999865889549) {
                                votes[1] += 1;
                            }

                            else {
                                votes[1] += 1;
                            }
                        }

                        // tree #13
                        if (x[2] <= 0.24729999899864197) {
                            if (x[1] <= 0.22405000030994415) {
                                votes[0] += 1;
                            }

                            else {
                                if (x[0] <= 0.5369499921798706) {
                                    votes[0] += 1;
                                }

                                else {
                                    votes[0] += 1;
                                }
                            }
                        }

                        else {
                            if (x[3] <= 65.92499923706055) {
                                votes[0] += 1;
                            }

                            else {
                                if (x[1] <= 0.2030000016093254) {
                                    if (x[3] <= 81.41500091552734) {
                                        votes[1] += 1;
                                    }

                                    else {
                                        if (x[3] <= 84.1400032043457) {
                                            votes[0] += 1;
                                        }

                                        else {
                                            if (x[1] <= 0.08259999752044678) {
                                                votes[1] += 1;
                                            }

                                            else {
                                                votes[1] += 1;
                                            }
                                        }
                                    }
                                }

                                else {
                                    if (x[3] <= 81.45999908447266) {
                                        votes[0] += 1;
                                    }

                                    else {
                                        votes[1] += 1;
                                    }
                                }
                            }
                        }

                        // tree #14
                        if (x[3] <= 84.1400032043457) {
                            if (x[1] <= 0.17109999805688858) {
                                if (x[2] <= 0.2543500065803528) {
                                    votes[0] += 1;
                                }

                                else {
                                    if (x[3] <= 65.24499893188477) {
                                        votes[0] += 1;
                                    }

                                    else {
                                        if (x[0] <= 0.13095000013709068) {
                                            votes[1] += 1;
                                        }

                                        else {
                                            if (x[2] <= 0.2748500108718872) {
                                                votes[1] += 1;
                                            }

                                            else {
                                                votes[1] += 1;
                                            }
                                        }
                                    }
                                }
                            }

                            else {
                                if (x[3] <= 82.60499954223633) {
                                    if (x[2] <= 0.22394999861717224) {
                                        votes[0] += 1;
                                    }

                                    else {
                                        if (x[2] <= 0.2733500003814697) {
                                            votes[0] += 1;
                                        }

                                        else {
                                            votes[0] += 1;
                                        }
                                    }
                                }

                                else {
                                    votes[1] += 1;
                                }
                            }
                        }

                        else {
                            if (x[3] <= 89.99499893188477) {
                                votes[1] += 1;
                            }

                            else {
                                if (x[2] <= 0.29725000262260437) {
                                    votes[1] += 1;
                                }

                                else {
                                    votes[1] += 1;
                                }
                            }
                        }

                        // tree #15
                        if (x[3] <= 84.1400032043457) {
                            if (x[0] <= 0.148499995470047) {
                                votes[1] += 1;
                            }

                            else {
                                if (x[3] <= 64.19499969482422) {
                                    votes[0] += 1;
                                }

                                else {
                                    if (x[1] <= 0.23595000058412552) {
                                        if (x[2] <= 0.25370000302791595) {
                                            if (x[1] <= 0.19174999743700027) {
                                                votes[0] += 1;
                                            }

                                            else {
                                                votes[1] += 1;
                                            }
                                        }

                                        else {
                                            if (x[1] <= 0.14339999854564667) {
                                                votes[1] += 1;
                                            }

                                            else {
                                                votes[0] += 1;
                                            }
                                        }
                                    }

                                    else {
                                        if (x[2] <= 0.2733500003814697) {
                                            votes[0] += 1;
                                        }

                                        else {
                                            votes[0] += 1;
                                        }
                                    }
                                }
                            }
                        }

                        else {
                            if (x[3] <= 88.47999954223633) {
                                if (x[3] <= 84.96500015258789) {
                                    votes[1] += 1;
                                }

                                else {
                                    votes[1] += 1;
                                }
                            }

                            else {
                                if (x[2] <= 0.26475000381469727) {
                                    votes[1] += 1;
                                }

                                else {
                                    if (x[2] <= 0.29794999957084656) {
                                        votes[1] += 1;
                                    }

                                    else {
                                        votes[1] += 1;
                                    }
                                }
                            }
                        }

                        // return argmax of votes
                        uint8_t classIdx = 0;
                        float maxVotes = votes[0];

                        for (uint8_t i = 1; i < 2; i++) {
                            if (votes[i] > maxVotes) {
                                classIdx = i;
                                maxVotes = votes[i];
                            }
                        }

                        return classIdx;
                    }

                protected:
                };
            }
        }
    }