#pragma once
#include <cstdarg>
namespace Eloquent {
    namespace ML {
        namespace Port {
            class SVM {
                public:
                    /**
                    * Predict class for features vector
                    */
                    int predict(float *x) {
                        float kernels[85] = { 0 };
                        float decisions[1] = { 0 };
                        int votes[2] = { 0 };
                        kernels[0] = compute_kernel(x,   -1.17947050938  , -1.146242416039  , -0.017825399832  , -1.932780610876 );
                        kernels[1] = compute_kernel(x,   -1.06776536608  , -1.022594719044  , -0.540662171078  , -2.028337861227 );
                        kernels[2] = compute_kernel(x,   -0.737919046713  , -0.851390215512  , -0.527425797122  , -1.837223360525 );
                        kernels[3] = compute_kernel(x,   -1.111498983504  , -1.300802037283  , -0.408298431522  , -2.123895111578 );
                        kernels[4] = compute_kernel(x,   1.166337499919  , 1.117461575102  , -0.338807468255  , -0.59497910596 );
                        kernels[5] = compute_kernel(x,   0.7005481288  , 0.968846554675  , 1.004684488238  , -0.59497910596 );
                        kernels[6] = compute_kernel(x,   0.772734943103  , 0.914156227158  , 0.240283892302  , 0.2650361472 );
                        kernels[7] = compute_kernel(x,   0.035586379534  , -0.278330696747  , 0.647302391437  , -0.403864605258 );
                        kernels[8] = compute_kernel(x,   0.967692032824  , 1.180474343763  , -0.120407297988  , 0.2650361472 );
                        kernels[9] = compute_kernel(x,   1.188994675211  , 1.029481483009  , 1.123811853838  , 0.360593397552 );
                        kernels[10] = compute_kernel(x,   0.729528236732  , 0.761974446241  , 0.690320606793  , -0.212750104555 );
                        kernels[11] = compute_kernel(x,   1.158960745173  , 0.929612189283  , -0.017825399832  , 0.073921646498 );
                        kernels[12] = compute_kernel(x,   2.373490723033  , 2.400306431427  , -0.179970980788  , -0.117192854204 );
                        kernels[13] = compute_kernel(x,   -1.644732969445  , -1.657478086307  , 0.266756640214  , 0.169478896849 );
                        kernels[14] = compute_kernel(x,   -1.160501711461  , -0.933425706788  , -2.069463362949  , -0.977208107365 );
                        kernels[15] = compute_kernel(x,   -1.142059824595  , -1.093929928849  , 0.332938509992  , 1.02949415001 );
                        kernels[16] = compute_kernel(x,   -1.161028622514  , -1.040428521495  , -1.940408716882  , -0.881650857013 );
                        kernels[17] = compute_kernel(x,   -0.833816858414  , -0.839501013878  , 0.48846590397  , -1.359437108769 );
                        kernels[18] = compute_kernel(x,   -0.736865224606  , -0.713475476556  , 0.101301965769  , -1.550551609472 );
                        kernels[19] = compute_kernel(x,   -0.849097278959  , -1.001194156103  , 0.399120379769  , -2.028337861227 );
                        kernels[20] = compute_kernel(x,   -0.606718194441  , -0.771732564564  , -0.08400726961  , -2.123895111578 );
                        kernels[21] = compute_kernel(x,   -0.5124011159  , -0.564860456129  , 0.809447972393  , 1.220608650712 );
                        kernels[22] = compute_kernel(x,   -0.509766560633  , -0.536326372207  , 0.471920436525  , 0.647265148605 );
                        kernels[23] = compute_kernel(x,   0.316429970944  , 0.231716053358  , 0.015265535057  , 0.360593397552 );
                        kernels[24] = compute_kernel(x,   0.434984957936  , 0.338718868066  , 0.101301965769  , 0.360593397552 );
                        kernels[25] = compute_kernel(x,   -0.996105462831  , -0.944125988259  , -0.481098488277  , 0.456150647903 );
                        kernels[26] = compute_kernel(x,   -0.985040330711  , -0.928670026134  , -0.603534947367  , 0.360593397552 );
                        kernels[27] = compute_kernel(x,   -0.815901882601  , -0.840689934042  , -0.752444154367  , -0.403864605258 );
                        kernels[28] = compute_kernel(x,   0.241081690321  , 0.301862343  , -1.199171775368  , -0.786093606662 );
                        kernels[29] = compute_kernel(x,   0.890763019042  , 0.975980075656  , -0.970844324634  , 0.456150647903 );
                        kernels[30] = compute_kernel(x,   -0.663097677144  , -0.698019514432  , 0.021883722035  , 0.360593397552 );
                        kernels[31] = compute_kernel(x,   -0.158843799134  , -0.274763936256  , -0.540662171078  , 0.073921646498 );
                        kernels[32] = compute_kernel(x,   1.124711526708  , 1.018781201539  , -1.123062625124  , -0.021635603853 );
                        kernels[33] = compute_kernel(x,   0.198401895004  , 0.198426288783  , -0.768989621812  , 0.169478896849 );
                        kernels[34] = compute_kernel(x,   -0.450752522663  , -0.516114729429  , -0.491025768744  , 0.073921646498 );
                        kernels[35] = compute_kernel(x,   0.271642531413  , 0.3506080697  , -0.709425939011  , -0.021635603853 );
                        kernels[36] = compute_kernel(x,   0.281126930372  , 0.356552670517  , -1.046953474879  , -0.117192854204 );
                        kernels[37] = compute_kernel(x,   -0.842247435267  , -0.652840548222  , -0.994007979057  , 0.551707898254 );
                        kernels[38] = compute_kernel(x,   -1.097799296118  , -0.919158664827  , -1.020480726968  , 0.456150647903 );
                        kernels[39] = compute_kernel(x,   1.467730622407  , 1.251809553568  , 0.319702136036  , 0.169478896849 );
                        kernels[40] = compute_kernel(x,   1.498818374552  , 1.367134809419  , 0.025192815524  , -0.021635603853 );
                        kernels[41] = compute_kernel(x,   1.167391322026  , 0.948634911897  , -0.404989338033  , 0.2650361472 );
                        kernels[42] = compute_kernel(x,   1.412404961811  , 1.181663263927  , -0.553898545033  , 0.169478896849 );
                        kernels[43] = compute_kernel(x,   1.411351139704  , 1.232786830953  , -0.05422542821  , 0.360593397552 );
                        kernels[44] = compute_kernel(x,   1.477215021367  , 1.300555280268  , 0.369338538369  , 0.2650361472 );
                        kernels[45] = compute_kernel(x,   -0.376458064148  , -0.485202805181  , 0.81937525286  , 0.742822398956 );
                        kernels[46] = compute_kernel(x,   -0.431783724745  , -0.507792288286  , 0.759811570059  , 1.125051400361 );
                        kernels[47] = compute_kernel(x,   0.119365237009  , 0.021277184434  , 0.319702136036  , 0.456150647903 );
                        kernels[48] = compute_kernel(x,   0.383874585766  , 0.261439057444  , 0.002029161102  , 0.2650361472 );
                        kernels[49] = compute_kernel(x,   0.123580525435  , 0.116390797507  , 0.928575337993  , 0.647265148605 );
                        kernels[50] = compute_kernel(x,   0.743227924118  , 0.878488622256  , 0.124465620191  , 0.551707898254 );
                        kernels[51] = compute_kernel(x,   0.858621444791  , 1.124595096083  , 0.604284176081  , 0.647265148605 );
                        kernels[52] = compute_kernel(x,   -0.985567241765  , -0.927481105971  , -0.213061915677  , 1.220608650712 );
                        kernels[53] = compute_kernel(x,   -0.883346497424  , -0.857334816329  , -0.507571236189  , 1.02949415001 );
                        kernels[54] = compute_kernel(x,   -1.585192020422  , -1.65153348549  , -0.315643813833  , 1.316165901063 );
                        kernels[55] = compute_kernel(x,   -1.569911599876  , -1.663422687125  , -0.438080272922  , 1.125051400361 );
                        kernels[56] = compute_kernel(x,   0.297461173025  , 0.328018586595  , -1.457281067502  , -0.59497910596 );
                        kernels[57] = compute_kernel(x,   0.661029799803  , 0.710850879214  , -1.851063192681  , -1.263879858418 );
                        kernels[58] = compute_kernel(x,   -0.705250561408  , -0.667107590183  , -0.285861972432  , 0.169478896849 );
                        kernels[59] = compute_kernel(x,   0.105665549623  , -0.168950041712  , 0.154247461591  , -1.072765357716 );
                        kernels[60] = compute_kernel(x,   -0.110894893284  , -0.148738398934  , 0.263447546725  , -0.881650857013 );
                        kernels[61] = compute_kernel(x,   -0.706304383515  , -0.671863270837  , 0.025192815524  , -0.786093606662 );
                        kernels[62] = compute_kernel(x,   -0.773748998337  , -0.680185711981  , 0.240283892302  , -0.977208107365 );
                        kernels[63] = compute_kernel(x,   -1.133629247742  , -1.1117637313  , 0.796211598437  , -0.881650857013 );
                        kernels[64] = compute_kernel(x,   -1.029300859189  , -0.888246740578  , 0.647302391437  , -0.881650857013 );
                        kernels[65] = compute_kernel(x,   -0.72948846986  , -0.577938577927  , 0.445447688614  , 0.742822398956 );
                        kernels[66] = compute_kernel(x,   0.148872255994  , 0.335152107575  , 1.130430040816  , 1.02949415001 );
                        kernels[67] = compute_kernel(x,   -0.79166397415  , -0.642140266751  , 0.514938651881  , 0.838379649307 );
                        kernels[68] = compute_kernel(x,   -0.026589124756  , 0.074778591788  , 1.312430182705  , 0.169478896849 );
                        kernels[69] = compute_kernel(x,   1.058320733992  , 1.047315285461  , 0.180720209502  , 0.456150647903 );
                        kernels[70] = compute_kernel(x,   -0.218911659211  , -0.297353419361  , -0.087316363099  , 0.2650361472 );
                        kernels[71] = compute_kernel(x,   0.234231846629  , 0.362497271334  , 0.352793070925  , 0.742822398956 );
                        kernels[72] = compute_kernel(x,   0.132011102288  , 0.314940464797  , 0.524865932348  , 0.647265148605 );
                        kernels[73] = compute_kernel(x,   1.410297317598  , 1.697654614848  , 0.498393184436  , 0.360593397552 );
                        kernels[74] = compute_kernel(x,   1.138411214094  , 1.43371433857  , 0.663847858881  , 0.647265148605 );
                        kernels[75] = compute_kernel(x,   1.090462308243  , 0.660916232351  , 1.282648341305  , 1.793952152819 );
                        kernels[76] = compute_kernel(x,   0.198401895004  , 0.131846759631  , 1.26941196735  , 1.02949415001 );
                        kernels[77] = compute_kernel(x,   1.501452929819  , 1.106761293631  , 1.41832117435  , 2.176181154223 );
                        kernels[78] = compute_kernel(x,   -1.418161216525  , -1.474384381142  , -0.189898261254  , -0.499421855609 );
                        kernels[79] = compute_kernel(x,   -0.408599638399  , -0.416245435703  , 1.580466755306  , 0.073921646498 );
                        kernels[80] = compute_kernel(x,   -1.388127286487  , -1.477951141632  , 0.045047376457  , -0.308307354907 );
                        kernels[81] = compute_kernel(x,   -1.269572299494  , -1.211633025027  , 1.156902788727  , 0.073921646498 );
                        kernels[82] = compute_kernel(x,   -1.046688923948  , -0.933425706788  , 0.203883863924  , -0.212750104555 );
                        kernels[83] = compute_kernel(x,   -0.469194409529  , -0.459046561586  , 1.173448256172  , -0.021635603853 );
                        kernels[84] = compute_kernel(x,   -1.152598045661  , -1.048750962639  , 0.316393042547  , -0.212750104555 );
                        float decision = -0.171075225033;
                        decision = decision - ( + kernels[0] * -0.946428571429  + kernels[1] * -0.946428571429  + kernels[2] * -0.946428571429  + kernels[3] * -0.946428571429  + kernels[4] * -0.946428571429  + kernels[5] * -0.946428571429  + kernels[6] * -0.946428571429  + kernels[7] * -0.946428571429  + kernels[8] * -0.946428571429  + kernels[9] * -0.946428571429  + kernels[10] * -0.946428571429  + kernels[11] * -0.946428571429  + kernels[12] * -0.735121212042  + kernels[13] * -0.946428571429  + kernels[14] * -0.946428571429  + kernels[15] * -0.946428571429  + kernels[16] * -0.946428571429  + kernels[17] * -0.946428571429  + kernels[18] * -0.946428571429  + kernels[19] * -0.946428571429  + kernels[20] * -0.946428571429  + kernels[21] * -0.946428571429  + kernels[22] * -0.946428571429  + kernels[23] * -0.946428571429  + kernels[24] * -0.946428571429  + kernels[25] * -0.946428571429  + kernels[26] * -0.946428571429  + kernels[27] * -0.946428571429  + kernels[28] * -0.764797229636  + kernels[29] * -0.946428571429  + kernels[30] * -0.946428571429  + kernels[31] * -0.946428571429  + kernels[32] * -0.946428571429  + kernels[33] * -0.946428571429  + kernels[34] * -0.946428571429  + kernels[35] * -0.946428571429  + kernels[36] * -0.946428571429  + kernels[37] * -0.946428571429  + kernels[38] * -0.946428571429  + kernels[39] * -0.946428571429  + kernels[40] * -0.946428571429  + kernels[41] * -0.946428571429  + kernels[42] * -0.946428571429  + kernels[43] * -0.946428571429  + kernels[44] * -0.946428571429 );
                        decision = decision - ( + kernels[45] * 1.06  + kernels[46] * 1.06  + kernels[47] * 1.06  + kernels[48] * 1.06  + kernels[49] * 1.06  + kernels[50] * 1.06  + kernels[51] * 1.06  + kernels[52] * 1.06  + kernels[53] * 1.06  + kernels[54] * 1.06  + kernels[55] * 1.06  + kernels[56] * 1.06  + kernels[57] * 1.06  + kernels[58] * 1.06  + kernels[59] * 1.06  + kernels[60] * 1.06  + kernels[61] * 1.06  + kernels[62] * 1.06  + kernels[63] * 1.06  + kernels[64] * 1.06  + kernels[65] * 1.06  + kernels[66] * 1.06  + kernels[67] * 1.06  + kernels[68] * 1.06  + kernels[69] * 1.06  + kernels[70] * 1.06  + kernels[71] * 1.06  + kernels[72] * 1.06  + kernels[73] * 1.06  + kernels[74] * 1.06  + kernels[75] * 1.06  + kernels[76] * 1.06  + kernels[77] * 1.06  + kernels[78] * 1.06  + kernels[79] * 1.06  + kernels[80] * 1.06  + kernels[81] * 0.856347013107  + kernels[82] * 1.06  + kernels[83] * 1.06  + kernels[84] * 1.06 );

                        return decision > 0 ? 0 : 1;
                    }

                protected:
                    /**
                    * Compute kernel between feature vector and support vector.
                    * Kernel type: rbf
                    */
                    float compute_kernel(float *x, ...) {
                        va_list w;
                        va_start(w, 4);
                        float kernel = 0.0;

                        for (uint16_t i = 0; i < 4; i++) {
                            kernel += pow(x[i] - va_arg(w, double), 2);
                        }

                        return exp(-0.01 * kernel);
                    }
                };
            }
        }
    }