#pragma once
#include <cstdarg>
namespace Eloquent {
    namespace ML {
        namespace Port {
            class SVM {
                public:
                    /**
                    * Predict class for features vector
                    */
                    int predict(float *x) {
                        float kernels[36] = { 0 };
                        float decisions[1] = { 0 };
                        int votes[2] = { 0 };
                        kernels[0] = compute_kernel(x,   -1.067861552235  , -1.035804008311  , 2.546833811763  , -1.893706214696 );
                        kernels[1] = compute_kernel(x,   -0.965544646006  , -0.9207540704  , 2.194112207038  , -2.039354105244 );
                        kernels[2] = compute_kernel(x,   -0.66342019648  , -0.76145415637  , 1.781711024942  , -1.808898582225 );
                        kernels[3] = compute_kernel(x,   -1.005602680048  , -1.179616430699  , 2.546833811763  , -2.132458136544 );
                        kernels[4] = compute_kernel(x,   0.654151284679  , 0.9322136796  , 1.537254294553  , -0.626200838088 );
                        kernels[5] = compute_kernel(x,   0.720271172195  , 0.881326207063  , -0.15711011686  , 0.191455357586 );
                        kernels[6] = compute_kernel(x,   0.045076116466  , -0.228241944131  , 0.995547361484  , -0.479631125448 );
                        kernels[7] = compute_kernel(x,   1.101546435974  , 0.988632399152  , 0.519640988082  , 0.266122947044 );
                        kernels[8] = compute_kernel(x,   0.680695765069  , 0.739726283481  , 0.754916245029  , -0.260237467533 );
                        kernels[9] = compute_kernel(x,   -1.494021119218  , -1.511491251594  , -0.03928120769  , 0.101116792562 );
                        kernels[10] = compute_kernel(x,   -1.033595041186  , -0.987129034579  , -0.789866661561  , 0.937209430077 );
                        kernels[11] = compute_kernel(x,   -0.456855876357  , -0.494848050251  , -0.547705299532  , 1.083779142717 );
                        kernels[12] = compute_kernel(x,   -0.454442741776  , -0.468298064579  , -0.297892709635  , 0.523311310734 );
                        kernels[13] = compute_kernel(x,   0.302316262787  , 0.246339049749  , -0.48917340634  , 0.327885027213 );
                        kernels[14] = compute_kernel(x,   0.410907318927  , 0.345901496018  , -0.363310707908  , 0.275341167965 );
                        kernels[15] = compute_kernel(x,   -0.899907385406  , -0.847741609803  , -0.981147358266  , 0.408083549224 );
                        kernels[16] = compute_kernel(x,   -0.889772220166  , -0.833360367564  , -1.010604585558  , 0.326041383029 );
                        kernels[17] = compute_kernel(x,   -0.758980325882  , -0.576710506072  , -1.500283169123  , 0.515014911905 );
                        kernels[18] = compute_kernel(x,   -0.993054380228  , -0.82451037234  , -1.445576889866  , 0.424676346881 );
                        kernels[19] = compute_kernel(x,   0.121813796138  , 0.050532905421  , -0.325437129961  , 0.424676346881 );
                        kernels[20] = compute_kernel(x,   0.364092508058  , 0.273995284824  , -0.363310707908  , 0.191455357586 );
                        kernels[21] = compute_kernel(x,   0.125674811467  , 0.13903285766  , 0.002417984192  , 0.598900722284 );
                        kernels[22] = compute_kernel(x,   0.69324406489  , 0.848138724973  , -0.543879685598  , 0.48182931659 );
                        kernels[23] = compute_kernel(x,   0.798939359532  , 1.077132351391  , -0.270730850703  , 0.608118943205 );
                        kernels[24] = compute_kernel(x,   -0.890254847082  , -0.832254118161  , -1.363708751676  , 1.119730204309 );
                        kernels[25] = compute_kernel(x,   -0.796625225344  , -0.766985403385  , -1.418415030934  , 0.900336546394 );
                        kernels[26] = compute_kernel(x,   0.109265496317  , -0.126466999057  , 1.314221002195  , -1.058535399273 );
                        kernels[27] = compute_kernel(x,   -0.089094166231  , -0.107660759206  , 1.209781741794  , -0.91104386454 );
                        kernels[28] = compute_kernel(x,   -0.634462581509  , -0.594410496519  , 0.899907013132  , -0.860343649476 );
                        kernels[29] = compute_kernel(x,   -0.69623882678  , -0.60215424234  , 1.279407915395  , -0.974649588894 );
                        kernels[30] = compute_kernel(x,   -0.930312881125  , -0.795747887863  , 1.632894642906  , -0.93316759475 );
                        kernels[31] = compute_kernel(x,   1.011295202649  , 0.645695084227  , -0.7179451196  , 1.70600905487 );
                        kernels[32] = compute_kernel(x,   -1.286491545262  , -1.341128843534  , 0.326064923017  , -0.58287519976 );
                        kernels[33] = compute_kernel(x,   -1.25898181104  , -1.344447591743  , 0.313822958428  , -0.389292560424 );
                        kernels[34] = compute_kernel(x,   -0.946239569359  , -0.837785365176  , 0.34328018572  , -0.288813952387 );
                        kernels[35] = compute_kernel(x,   -1.04324757951  , -0.945091557266  , 0.453457867022  , -0.295266707032 );
                        float decision = -0.419348285761;
                        decision = decision - ( + kernels[0] * -9.512195121951  + kernels[1] * -9.512195121951  + kernels[2] * -0.243042158926  + kernels[3] * -9.512195121951  + kernels[4] * -9.512195121951  + kernels[5] * -5.156797092283  + kernels[6] * -9.512195121951  + kernels[7] * -9.512195121951  + kernels[8] * -9.512195121951  + kernels[9] * -9.512195121951  + kernels[10] * -9.512195121951  + kernels[11] * -9.512195121951  + kernels[12] * -9.512195121951  + kernels[13] * -9.512195121951  + kernels[14] * -9.512195121951  + kernels[15] * -9.512195121951  + kernels[16] * -9.512195121951  + kernels[17] * -9.512195121951  + kernels[18] * -9.512195121951 );
                        decision = decision - ( + kernels[19] * 10.540540540541  + kernels[20] * 10.540540540541  + kernels[21] * 10.540540540541  + kernels[22] * 10.540540540541  + kernels[23] * 10.540540540541  + kernels[24] * 8.891073636838  + kernels[25] * 10.540540540541  + kernels[26] * 10.540540540541  + kernels[27] * 10.540540540541  + kernels[28] * 10.540540540541  + kernels[29] * 10.540540540541  + kernels[30] * 9.113139128692  + kernels[31] * 1.535375991282  + kernels[32] * 10.540540540541  + kernels[33] * 10.540540540541  + kernels[34] * 10.540540540541  + kernels[35] * 10.540540540541 );

                        return decision > 0 ? 0 : 1;
                    }

                protected:
                    /**
                    * Compute kernel between feature vector and support vector.
                    * Kernel type: linear
                    */
                    float compute_kernel(float *x, ...) {
                        va_list w;
                        va_start(w, 4);
                        float kernel = 0.0;

                        for (uint16_t i = 0; i < 4; i++) {
                            kernel += x[i] * va_arg(w, double);
                        }

                        return kernel;
                    }
                };
            }
        }
    }